的 0.209092 -0.165459 -0.058054 0.281176 0.102982 0.099868 0.047287 0.113531 0.202805 0.240482 0.026028 0.073504 0.010873 0.010201 -0.056060 -0.063864 -0.025928 -0.158832 -0.019444 -0.144610 -0.124821 0.000499 -0.050971 0.113983 0.088150 0.080318 -0.145976 0.093325 0.139695 -0.082682 -0.034356 0.061241 -0.090153 0.053166 -0.171991 -0.187834 0.115600 0.219545 -0.200234 -0.106904 0.033836 0.005707 0.484198 0.147382 -0.165274 0.094883 -0.202281 -0.638371 -0.127920 -0.212338 -0.250738 -0.022411 -0.315008 0.169237 -0.002799 0.019125 0.017462 0.028013 0.195060 0.036385 -0.051681 0.154037 0.214785 -0.179985 -0.020429 -0.044819 -0.074923 0.105441 -0.081715 -0.034099 -0.096518 -0.004290 0.095423 0.234515 -0.138332 0.134917 0.082070 0.051714 0.159327 0.061818 0.037091 0.239265 0.073274 0.170960 0.223636 -0.187691 -0.206850 -0.051000 -0.269477 -0.116970 0.213069 -0.096122 0.035362 -0.254648 0.021978 0.071687 0.109870 -0.104643 -0.175653 0.097061 -0.068692 0.196374 0.007704 0.072367 -0.275905 0.217282 -0.056664 -0.321484 -0.004813 -0.041167 -0.118400 -0.159937 0.065294 -0.092538 0.013975 -0.219047 -0.058431 -0.177256 -0.043169 -0.151647 -0.006049 -0.279595 -0.005488 0.096733 0.147219 0.197677 -0.088133 0.053465 0.038738 0.059665 -0.132819 0.019606 0.224926 -0.176136 -0.411968 -0.044071 -0.120198 -0.107929 -0.001640 0.036719 -0.243131 -0.273457 -0.317418 -0.079236 0.054842 -0.143945 0.168189 -0.013057 -0.145664 0.135278 0.029447 -0.141014 -0.183899 -0.080112 -0.113538 0.071163 0.134968 0.141939 0.144405 -0.249114 0.454654 -0.077072 -0.001521 0.298252 0.160275 0.085942 -0.213363 0.083022 -0.000400 0.134826 -0.000681 -0.017328 -0.026751 0.111903 0.010307 -0.124723 0.031472 0.081697 0.071449 0.011486 -0.091571 -0.039319 -0.112756 0.171106 0.026869 -0.077058 -0.052948 0.252645 -0.035071 0.040870 0.277828 0.085193 0.006959 -0.048913 0.279133 0.169515 0.068156 -0.278624 -0.173408 0.035439
。 0.128825 -0.267995 0.000795 0.263639 0.097538 0.010807 -0.028897 0.117577 0.156264 0.188688 0.039535 0.003052 -0.006556 -0.000542 -0.029001 -0.077706 -0.032283 -0.143411 -0.077546 -0.190037 -0.133469 -0.022468 -0.072961 0.144973 0.098850 0.084037 -0.190143 0.088755 0.138181 -0.105819 0.017681 0.097694 -0.041753 0.067210 -0.168004 -0.220518 0.109195 0.213823 -0.257998 -0.077525 0.020666 0.093258 0.479364 0.118419 -0.075531 0.027833 -0.218220 -0.606599 -0.070421 -0.199476 -0.233392 0.043417 -0.329303 0.209230 0.076914 -0.104362 0.062803 0.135248 0.140913 0.004518 0.025996 0.098697 0.151008 -0.097791 -0.107083 0.031974 -0.128378 0.083871 -0.084132 -0.081561 -0.130019 -0.000076 0.044137 0.141331 -0.015837 0.040789 0.059898 0.090438 0.109648 0.057426 0.018093 0.301312 0.052632 0.235123 0.242908 -0.095973 -0.095958 0.030708 -0.384714 -0.164777 0.173542 -0.068162 0.008059 -0.271924 0.051049 0.104490 0.010147 -0.105521 -0.127305 0.166114 -0.088172 0.226118 0.063335 0.109702 -0.240658 0.222202 0.038648 -0.355815 -0.015869 -0.118660 -0.072290 -0.113268 0.022802 -0.181717 0.042459 -0.112042 -0.146667 -0.162785 -0.164891 -0.124024 0.114017 -0.279552 0.043898 0.119786 0.074259 0.180340 -0.151963 0.054344 0.062367 0.081112 -0.201022 0.007162 0.285948 -0.080341 -0.373533 0.010599 -0.068789 -0.048280 0.024877 -0.023046 -0.260779 -0.348213 -0.316790 0.094536 0.131866 -0.186581 0.250213 0.002131 -0.133212 0.041250 -0.022561 -0.120896 -0.115173 -0.136738 -0.106566 -0.004902 0.111645 0.065397 0.250295 -0.107772 0.364187 0.091516 0.020277 0.247552 0.125857 0.037309 -0.204360 0.228403 0.029138 0.095838 -0.000847 0.018618 -0.083734 0.204566 -0.044542 -0.150615 -0.023076 -0.048712 0.146612 0.015543 -0.081624 0.049204 -0.175686 0.155870 0.020196 -0.102833 -0.046915 0.256491 -0.039505 0.110278 0.273165 0.062938 0.050126 -0.091656 0.221263 0.245667 0.096496 -0.286896 -0.273779 0.031194
, -0.098885 -0.335186 -0.092543 0.145954 0.062586 -0.031792 0.002963 0.095666 0.136642 0.228925 0.290372 0.031822 0.079649 0.004957 0.186027 -0.120654 -0.085876 -0.038904 -0.188163 -0.049018 -0.031889 -0.076527 -0.044837 0.179972 0.280003 -0.025408 -0.129556 0.204244 0.135897 0.040038 0.066776 0.229703 -0.005452 0.053202 -0.078578 -0.360414 0.217936 -0.122313 -0.097521 -0.371549 -0.126917 0.004912 0.572844 0.188218 0.075694 -0.068327 -0.113156 -0.520387 -0.015882 -0.063246 -0.297707 0.082145 -0.346270 0.305896 0.284688 -0.153902 0.063972 0.165861 0.052901 -0.124356 -0.022029 0.037506 -0.072065 -0.150246 -0.155110 -0.048658 -0.146387 0.076884 -0.191979 0.057570 -0.046671 0.100186 0.082296 0.329750 0.002845 0.143715 0.133200 0.173783 -0.008137 -0.027748 0.037880 0.351362 0.104906 0.196654 0.344083 -0.166356 0.093684 0.067884 -0.388054 -0.158803 0.189325 0.120307 -0.104332 -0.338101 0.059107 0.086494 -0.146971 -0.134498 -0.158104 0.193087 -0.149227 0.301898 0.039827 0.119830 -0.138713 0.048479 0.366490 -0.550691 0.030574 -0.211866 -0.015142 -0.217475 -0.082156 -0.169474 -0.026249 -0.139175 -0.068187 -0.220310 -0.305426 -0.120390 0.139736 -0.337384 0.066118 0.054236 0.126146 0.276481 -0.220184 0.035463 0.144391 0.097852 -0.075931 0.104917 0.396221 -0.025875 -0.320798 -0.042056 0.008985 -0.151966 -0.155902 -0.251964 -0.229793 -0.382696 -0.311796 0.126690 0.180148 -0.149632 0.153048 0.037665 -0.118928 0.090724 -0.031901 -0.138475 -0.087738 -0.117940 -0.139657 -0.026110 -0.047370 -0.088814 0.213824 0.125929 0.400300 0.213129 -0.108517 0.283643 0.068651 -0.031996 -0.250347 0.226049 0.175005 -0.007276 0.006655 0.053348 0.013796 0.198805 -0.052261 0.014431 -0.013838 -0.162294 0.111247 0.078699 0.000247 0.017076 -0.150237 0.071130 0.070735 0.024919 -0.139731 0.063105 -0.061940 0.165181 0.221614 0.173825 0.088357 -0.119238 0.135927 0.480134 0.144222 -0.322631 -0.299947 0.179642
了 0.257969 -0.288066 0.105582 0.281781 0.262464 0.024700 0.201691 0.005893 0.189025 0.123702 0.000702 -0.024353 0.074768 -0.120963 0.053227 -0.115575 -0.004054 -0.215095 -0.157094 -0.259438 0.062279 0.142544 -0.057884 0.149006 0.142659 -0.055425 -0.023676 0.048273 0.274754 -0.119763 -0.068765 0.031547 -0.045737 0.171814 -0.255463 -0.086406 0.171091 0.073908 -0.288000 0.051408 0.014997 0.005331 0.401295 0.095939 -0.045079 0.089809 -0.274839 -0.682658 -0.140976 -0.104340 -0.260310 0.023253 -0.258755 0.066476 -0.121786 0.001883 0.101805 0.168083 0.184144 0.069670 0.060302 0.190894 0.035508 0.005831 -0.160862 -0.194421 0.027660 -0.004459 -0.094092 -0.127693 -0.151391 0.004516 0.176035 0.156662 -0.035896 0.040939 0.056237 0.105161 0.208659 -0.029048 0.050157 0.265578 0.121959 0.337101 0.153380 -0.229313 -0.225776 0.144097 -0.110946 -0.118999 0.063307 0.043647 0.038288 -0.268226 -0.166147 0.131352 0.087143 -0.138708 -0.125388 0.124644 -0.029785 0.235381 -0.140240 -0.022642 -0.285102 0.207541 -0.066322 -0.421221 -0.050854 -0.180806 0.063572 -0.221671 0.144535 -0.106335 0.039128 -0.323642 0.136248 -0.268427 -0.005231 0.022319 0.100253 -0.346457 -0.058811 -0.041238 0.045793 0.122920 -0.153493 0.146689 0.018370 0.121537 -0.134108 -0.041995 0.198174 -0.130834 -0.339254 0.032741 -0.095624 0.119803 0.061630 0.166394 -0.330792 -0.224072 -0.270991 0.125234 -0.057835 -0.233979 0.228011 0.050660 -0.160570 0.180151 -0.083350 -0.156653 -0.135692 -0.145908 -0.096677 -0.066022 0.088564 -0.045435 0.054121 -0.357914 0.448524 0.141443 -0.094841 0.212140 0.053208 0.114341 -0.139839 0.239768 0.095185 0.049941 -0.141136 -0.093853 -0.107702 0.065235 -0.007106 -0.292004 0.048486 -0.063324 0.033387 0.068469 -0.210287 -0.039360 -0.273291 0.143838 -0.105371 -0.155323 -0.020802 0.499330 -0.100334 -0.001517 0.252245 0.093027 0.057058 0.062758 0.277739 0.240228 0.184851 -0.348845 -0.224438 0.065580